<?xml version="1.0"?>
<opencv_storage>
<stage17>
  <maxWeakCount>14</maxWeakCount>
  <stageThreshold>-9.1412591934204102e-01</stageThreshold>
  <weakClassifiers>
    <_>
      <internalNodes>
        0 -1 335791 -3.1985647976398468e-02</internalNodes>
      <leafValues>
        7.6923078298568726e-01 -3.5420742630958557e-01</leafValues></_>
    <_>
      <internalNodes>
        0 -1 365237 6.9993856595829129e-04</internalNodes>
      <leafValues>
        6.6755101084709167e-02 -6.2062305212020874e-01</leafValues></_>
    <_>
      <internalNodes>
        0 -1 116755 2.0000319636892527e-05</internalNodes>
      <leafValues>
        -1.9024206697940826e-01 2.9944559931755066e-01</leafValues></_>
    <_>
      <internalNodes>
        0 -1 139979 3.1629234552383423e-02</internalNodes>
      <leafValues>
        -9.7562827169895172e-02 5.4106944799423218e-01</leafValues></_>
    <_>
      <internalNodes>
        0 -1 424656 -2.3055523342918605e-05</internalNodes>
      <leafValues>
        2.4967828392982483e-01 -2.4915541708469391e-01</leafValues></_>
    <_>
      <internalNodes>
        0 -1 197565 9.6756138373166323e-04</internalNodes>
      <leafValues>
        1.2977176904678345e-01 -6.2969106435775757e-01</leafValues></_>
    <_>
      <internalNodes>
        0 -1 411389 -2.4124891497194767e-03</internalNodes>
      <leafValues>
        -7.1116483211517334e-01 8.5308827459812164e-02</leafValues></_>
    <_>
      <internalNodes>
        0 -1 357135 1.8730565207079053e-03</internalNodes>
      <leafValues>
        1.6446135938167572e-01 -3.7379297614097595e-01</leafValues></_>
    <_>
      <internalNodes>
        0 -1 279496 -1.3348796637728810e-03</internalNodes>
      <leafValues>
        6.2523645162582397e-01 -1.1734497547149658e-01</leafValues></_>
    <_>
      <internalNodes>
        0 -1 269407 -2.1081279555801302e-05</internalNodes>
      <leafValues>
        3.1008830666542053e-01 -2.0664688944816589e-01</leafValues></_>
    <_>
      <internalNodes>
        0 -1 435065 -7.1351137012243271e-04</internalNodes>
      <leafValues>
        5.4958820343017578e-01 -1.3000603020191193e-01</leafValues></_>
    <_>
      <internalNodes>
        0 -1 96521 -1.7359668854624033e-03</internalNodes>
      <leafValues>
        -3.4847995638847351e-01 2.1694330871105194e-01</leafValues></_>
    <_>
      <internalNodes>
        0 -1 89197 -4.5317976037040353e-04</internalNodes>
      <leafValues>
        -4.9409234523773193e-01 1.3470508158206940e-01</leafValues></_>
    <_>
      <internalNodes>
        0 -1 276805 -1.0845004580914974e-03</internalNodes>
      <leafValues>
        2.6352891325950623e-01 -2.6959317922592163e-01</leafValues></_></weakClassifiers></stage17>
</opencv_storage>
