<?xml version="1.0"?>
<opencv_storage>
<stage1>
  <maxWeakCount>8</maxWeakCount>
  <stageThreshold>-1.2672291994094849e+00</stageThreshold>
  <weakClassifiers>
    <_>
      <internalNodes>
        0 -1 373085 -1.7901326064020395e-03</internalNodes>
      <leafValues>
        5.7499998807907104e-01 -4.5295405387878418e-01</leafValues></_>
    <_>
      <internalNodes>
        0 -1 338003 1.9566277042031288e-03</internalNodes>
      <leafValues>
        -2.0798215270042419e-01 7.4264723062515259e-01</leafValues></_>
    <_>
      <internalNodes>
        0 -1 454205 9.3929609283804893e-04</internalNodes>
      <leafValues>
        -1.3463526964187622e-01 8.3143711090087891e-01</leafValues></_>
    <_>
      <internalNodes>
        0 -1 437289 -8.8142021559178829e-04</internalNodes>
      <leafValues>
        4.6384721994400024e-01 -3.0479630827903748e-01</leafValues></_>
    <_>
      <internalNodes>
        0 -1 491789 1.1840495280921459e-03</internalNodes>
      <leafValues>
        -1.6364340484142303e-01 8.0130106210708618e-01</leafValues></_>
    <_>
      <internalNodes>
        0 -1 280176 5.2463756874203682e-03</internalNodes>
      <leafValues>
        -3.5654735565185547e-01 4.4587552547454834e-01</leafValues></_>
    <_>
      <internalNodes>
        0 -1 179922 -5.3632417693734169e-03</internalNodes>
      <leafValues>
        9.0423667430877686e-01 -1.2989881634712219e-01</leafValues></_>
    <_>
      <internalNodes>
        0 -1 90568 -2.0515166397672147e-05</internalNodes>
      <leafValues>
        4.1388684511184692e-01 -3.1919473409652710e-01</leafValues></_></weakClassifiers></stage1>
</opencv_storage>
