<?xml version="1.0"?>
<opencv_storage>
<stage10>
  <maxWeakCount>19</maxWeakCount>
  <stageThreshold>-1.0137263536453247e+00</stageThreshold>
  <weakClassifiers>
    <_>
      <internalNodes>
        0 -1 173671 4.3830573558807373e-03</internalNodes>
      <leafValues>
        -3.8144329190254211e-01 4.6153846383094788e-01</leafValues></_>
    <_>
      <internalNodes>
        0 -1 32506 -1.0585985146462917e-03</internalNodes>
      <leafValues>
        3.3173599839210510e-01 -3.6687654256820679e-01</leafValues></_>
    <_>
      <internalNodes>
        0 -1 457158 5.0263182492926717e-04</internalNodes>
      <leafValues>
        -1.6203066706657410e-01 3.8792067766189575e-01</leafValues></_>
    <_>
      <internalNodes>
        0 -1 33455 -1.1323076672852039e-02</internalNodes>
      <leafValues>
        -6.7777180671691895e-01 1.1165882647037506e-01</leafValues></_>
    <_>
      <internalNodes>
        0 -1 425253 1.1959176044911146e-03</internalNodes>
      <leafValues>
        1.6274051368236542e-01 -4.9830761551856995e-01</leafValues></_>
    <_>
      <internalNodes>
        0 -1 414062 -1.0208778548985720e-03</internalNodes>
      <leafValues>
        7.6892203092575073e-01 -1.0356125235557556e-01</leafValues></_>
    <_>
      <internalNodes>
        0 -1 463261 3.9694486185908318e-03</internalNodes>
      <leafValues>
        -1.1095450818538666e-01 6.7482811212539673e-01</leafValues></_>
    <_>
      <internalNodes>
        0 -1 461769 -4.1754771955311298e-03</internalNodes>
      <leafValues>
        5.1925551891326904e-01 -1.4813168346881866e-01</leafValues></_>
    <_>
      <internalNodes>
        0 -1 300469 5.1208271179348230e-04</internalNodes>
      <leafValues>
        -2.8124380111694336e-01 2.4264453351497650e-01</leafValues></_>
    <_>
      <internalNodes>
        0 -1 350503 -1.3018155004829168e-03</internalNodes>
      <leafValues>
        4.2708459496498108e-01 -1.9283087551593781e-01</leafValues></_>
    <_>
      <internalNodes>
        0 -1 491360 9.3347963411360979e-04</internalNodes>
      <leafValues>
        1.5989823639392853e-01 -6.0672426223754883e-01</leafValues></_>
    <_>
      <internalNodes>
        0 -1 433892 1.0523712262511253e-03</internalNodes>
      <leafValues>
        -2.1073462069034576e-01 4.0624943375587463e-01</leafValues></_>
    <_>
      <internalNodes>
        0 -1 459408 1.5951908426359296e-03</internalNodes>
      <leafValues>
        1.3138876855373383e-01 -5.2129524946212769e-01</leafValues></_>
    <_>
      <internalNodes>
        0 -1 28911 1.0249182581901550e-02</internalNodes>
      <leafValues>
        1.1216723918914795e-01 -5.9432935714721680e-01</leafValues></_>
    <_>
      <internalNodes>
        0 -1 90747 -6.7938379943370819e-03</internalNodes>
      <leafValues>
        4.3996530771255493e-01 -1.9791156053543091e-01</leafValues></_>
    <_>
      <internalNodes>
        0 -1 505253 -1.7198122804984450e-04</internalNodes>
      <leafValues>
        4.8271185159683228e-01 -1.5038044750690460e-01</leafValues></_>
    <_>
      <internalNodes>
        0 -1 161729 -5.2342580602271482e-05</internalNodes>
      <leafValues>
        2.8559660911560059e-01 -2.7229920029640198e-01</leafValues></_>
    <_>
      <internalNodes>
        0 -1 411639 1.9840980530716479e-04</internalNodes>
      <leafValues>
        1.0960888862609863e-01 -6.3117021322250366e-01</leafValues></_>
    <_>
      <internalNodes>
        0 -1 288778 7.4904831126332283e-04</internalNodes>
      <leafValues>
        -2.0178839564323425e-01 4.0986657142639160e-01</leafValues></_></weakClassifiers></stage10>
</opencv_storage>
