<?xml version="1.0"?>
<opencv_storage>
<stage14>
  <maxWeakCount>12</maxWeakCount>
  <stageThreshold>-8.2386094331741333e-01</stageThreshold>
  <weakClassifiers>
    <_>
      <internalNodes>
        0 -1 122369 4.6613104641437531e-03</internalNodes>
      <leafValues>
        -4.0928271412849426e-01 5.2380955219268799e-01</leafValues></_>
    <_>
      <internalNodes>
        0 -1 503529 5.5152937769889832e-02</internalNodes>
      <leafValues>
        8.7756939232349396e-02 -8.2688295841217041e-01</leafValues></_>
    <_>
      <internalNodes>
        0 -1 114341 -6.3647880779171828e-06</internalNodes>
      <leafValues>
        3.8112777471542358e-01 -2.2397468984127045e-01</leafValues></_>
    <_>
      <internalNodes>
        0 -1 507057 6.3100305851548910e-05</internalNodes>
      <leafValues>
        -2.6923626661300659e-01 3.3651775121688843e-01</leafValues></_>
    <_>
      <internalNodes>
        0 -1 28822 -2.5670561008155346e-03</internalNodes>
      <leafValues>
        -4.7598549723625183e-01 1.9600102305412292e-01</leafValues></_>
    <_>
      <internalNodes>
        0 -1 91 4.2631756514310837e-03</internalNodes>
      <leafValues>
        -1.6592420637607574e-01 6.0004490613937378e-01</leafValues></_>
    <_>
      <internalNodes>
        0 -1 172918 6.1247078701853752e-03</internalNodes>
      <leafValues>
        -9.7666382789611816e-02 6.8966197967529297e-01</leafValues></_>
    <_>
      <internalNodes>
        0 -1 280361 -9.1924238950014114e-03</internalNodes>
      <leafValues>
        -7.4401837587356567e-01 1.1806101351976395e-01</leafValues></_>
    <_>
      <internalNodes>
        0 -1 468190 7.9375167842954397e-05</internalNodes>
      <leafValues>
        -2.1875023841857910e-01 4.3448847532272339e-01</leafValues></_>
    <_>
      <internalNodes>
        0 -1 345521 2.1772302716271952e-05</internalNodes>
      <leafValues>
        -2.2299757599830627e-01 4.3058711290359497e-01</leafValues></_>
    <_>
      <internalNodes>
        0 -1 322832 5.6998535990715027e-02</internalNodes>
      <leafValues>
        -1.0540856420993805e-01 9.0475690364837646e-01</leafValues></_>
    <_>
      <internalNodes>
        0 -1 456907 -3.3738468773663044e-03</internalNodes>
      <leafValues>
        7.0922970771789551e-01 -9.8793901503086090e-02</leafValues></_></weakClassifiers></stage14>
</opencv_storage>
