<?xml version="1.0"?>
<opencv_storage>
<stage0>
  <maxWeakCount>13</maxWeakCount>
  <stageThreshold>-1.1723940372467041e+00</stageThreshold>
  <weakClassifiers>
    <_>
      <internalNodes>
        0 -1 42087 1.2990972399711609e-01</internalNodes>
      <leafValues>
        -4.4396552443504333e-01 6.1643832921981812e-01</leafValues></_>
    <_>
      <internalNodes>
        0 -1 221744 -2.1116076823091134e-05</internalNodes>
      <leafValues>
        3.8829353451728821e-01 -3.5331603884696960e-01</leafValues></_>
    <_>
      <internalNodes>
        0 -1 282314 4.2258463799953461e-02</internalNodes>
      <leafValues>
        -2.2812904417514801e-01 5.8888244628906250e-01</leafValues></_>
    <_>
      <internalNodes>
        0 -1 162511 -2.2941808856558055e-04</internalNodes>
      <leafValues>
        4.1442948579788208e-01 -2.7380689978599548e-01</leafValues></_>
    <_>
      <internalNodes>
        0 -1 456299 1.1799950152635574e-03</internalNodes>
      <leafValues>
        -2.8208187222480774e-01 4.2846706509590149e-01</leafValues></_>
    <_>
      <internalNodes>
        0 -1 414966 8.5489628836512566e-03</internalNodes>
      <leafValues>
        -2.1591429412364960e-01 5.7872670888900757e-01</leafValues></_>
    <_>
      <internalNodes>
        0 -1 507913 -2.5727451429702342e-04</internalNodes>
      <leafValues>
        4.6378648281097412e-01 -2.3460485041141510e-01</leafValues></_>
    <_>
      <internalNodes>
        0 -1 34801 -1.2850907444953918e-01</internalNodes>
      <leafValues>
        8.5718369483947754e-01 -1.3440617918968201e-01</leafValues></_>
    <_>
      <internalNodes>
        0 -1 90588 2.2845123894512653e-03</internalNodes>
      <leafValues>
        1.5406209230422974e-01 -8.3659994602203369e-01</leafValues></_>
    <_>
      <internalNodes>
        0 -1 78633 6.1938699334859848e-02</internalNodes>
      <leafValues>
        -1.7880262434482574e-01 6.2534117698669434e-01</leafValues></_>
    <_>
      <internalNodes>
        0 -1 111478 -4.4166590087115765e-03</internalNodes>
      <leafValues>
        3.7278467416763306e-01 -2.7845588326454163e-01</leafValues></_>
    <_>
      <internalNodes>
        0 -1 126759 2.4630338884890079e-03</internalNodes>
      <leafValues>
        -1.9405338168144226e-01 5.4034501314163208e-01</leafValues></_>
    <_>
      <internalNodes>
        0 -1 28200 -1.2343679554760456e-03</internalNodes>
      <leafValues>
        -8.1596851348876953e-01 1.5160349011421204e-01</leafValues></_></weakClassifiers></stage0>
</opencv_storage>
